97 64
99 -0.14832085 -0.025296126 -0.16494033 -0.2943795 -0.23693725 -0.26709145 -0.041876525 0.3676312 0.075534515 -0.10832932 0.07551354 -0.20540826 -0.047943406 -0.010429659 -0.18839146 0.15056905 0.33086187 0.10077469 0.037229344 0.27701765 0.11619274 0.13084158 -0.13395967 0.21508777 0.025020098 -0.08195261 -0.28879312 0.011317067 0.25079188 -0.47250375 -0.014233031 0.06674973 -0.36288062 0.2488121 0.5155341 -0.04480423 -0.12326765 0.08822531 0.08321023 0.02082176 0.03577773 0.17256933 -0.09613169 0.17864595 -0.14918016 -0.017064478 0.04280011 0.032419983 -0.14456405 -0.09710294 0.032612927 0.035740647 -0.15053698 -0.03115979 -0.13178287 -0.044166747 0.034649834 -0.14139228 0.4311249 -0.20311777 0.20585546 -0.0669729 -0.12042906 -0.21131492
72 -0.11069634 -0.15364219 -0.12036772 -0.2914539 -0.22258212 -0.25358468 -0.041161355 0.38552442 0.09020151 -0.030580806 0.062283035 -0.21037033 -0.026964597 0.047999833 -0.32969302 0.1639456 0.21825585 -0.080541275 0.057777025 0.16856878 0.12963095 0.28052908 -0.12726714 0.22914073 0.026581189 -0.10720324 -0.08403812 0.13225727 0.20012775 -0.44291303 -0.080357246 0.03636978 -0.44870883 0.4394853 0.49413508 -0.08443966 -0.05207402 0.16403267 0.29137248 0.15100461 -0.0755329 0.0028717748 0.016068012 0.0793737 -0.20103139 -0.1592931 -0.10852735 -0.176111 -0.048660602 -0.07819581 0.028942676 0.042312123 -0.14663917 -0.10791088 -0.11494767 0.06764176 0.012687392 -0.19648097 0.40784815 -0.16715418 0.15815215 -0.034881912 -0.020919027 -0.23504925
68 -0.12607642 -0.16822727 -0.11571246 -0.253141 -0.07246693 -0.21425731 -0.09531682 0.41882226 0.06490452 -0.01833134 0.2937922 -0.1958412 -0.005750336 0.058321495 -0.12570857 0.13947356 0.18729693 -0.025058184 -0.030903777 0.2974217 0.23887989 0.16401863 -0.3327679 0.25007793 0.06878977 -0.023554804 -0.040028695 0.11134118 0.21035387 -0.48735163 -0.026419641 0.0685601 -0.3824273 0.31076762 0.2917409 -0.048690464 -0.033558812 0.19173206 0.31392494 0.17275727 0.06208932 0.04291256 -0.050462533 0.1301643 -0.22966547 -0.18540432 -0.007819749 -0.060897883 -0.049286246 -0.17352815 -0.0038897214 0.03552905 -0.13795003 0.1256941 -0.16351476 -0.045198586 0.054164883 -0.0061080027 0.40884373 -0.21087985 0.17101932 0.05056587 -0.1621981 -0.2226631
87 -0.15235494 -0.023262557 -0.06800074 -0.23895465 -0.23653516 -0.13448519 -0.050426688 0.3767788 0.07076215 -0.035486683 0.313443 -0.17053519 0.0053041405 0.10579106 -0.19237146 0.14704688 0.29884255 -0.002055244 0.09155204 0.17083018 0.13021758 0.11809822 -0.11917308 0.3472856 -0.006356636 -0.0958888 -0.14608045 0.123951174 0.1828372 -0.29153237 0.09687139 0.15106934 -0.4397985 0.49709368 0.37017575 0.021058233 -0.19259952 0.12282997 0.3435566 0.009583292 0.10850628 -0.0651216 -0.088952966 0.18317282 -0.26549402 -0.2361217 0.009547939 0.01009064 -0.11173865 0.069641314 0.039654236 0.12381854 -0.13329223 -0.029433656 -0.13550676 -0.05538755 0.052598022 -0.31597972 0.5346163 -0.06344326 0.25621113 -0.04093461 0.0020430642 -0.16651483
76 -0.13348535 -0.2079101 -0.1671562 -0.31369004 -0.2373764 -0.19469309 -0.015984915 0.47087383 0.0016765264 -0.1266468 0.2692184 -0.25031212 0.12381101 0.029572725 -0.18677689 0.15034527 0.20390466 -0.048774336 -0.011664766 0.18078944 0.2507727 0.21199313 -0.08672643 0.32762402 0.077582575 -0.07914134 -0.19994257 0.05518579 0.20027836 -0.34158346 0.009146071 0.10890981 -0.37042707 0.33362824 0.39210486 -0.16934738 -0.05817739 0.09618973 0.31143525 0.12726945 0.063635804 -0.04275379 -0.013646866 0.10463295 -0.21030442 -0.23225018 0.05250223 -0.14164162 -0.083156325 -0.032900423 -0.055898517 0.076260105 -0.24755816 -0.0879378 -0.14743659 0.03313539 -0.04946548 -0.0392835 0.38631353 -0.27059168 0.090665914 0.08084933 -0.2241535 -0.16884974
81 -0.1228888 -0.10001755 -0.18787068 -0.36074907 -0.23444195 -0.25437006 -0.15318292 0.41904232 0.20233083 -0.07415072 0.14447261 -0.11133342 0.047074184 0.035802025 -0.109249115 0.22456564 0.2734193 0.046124753 -0.043072682 0.22020066 0.22672448 0.13921818 -0.15934688 0.2803542 -0.039011896 0.0358536 -0.1250872 0.16072232 0.1583709 -0.47057024 -0.016993362 -0.029025374 -0.28791928 0.23650444 0.35408407 -0.08070763 -0.13318422 0.19302519 0.20652999 -0.030770283 0.12445719 0.073377006 -0.023250455 0.22247298 -0.24498972 -0.2106896 -0.1069894 -0.06009615 0.02357688 0.026699333 -0.07435994 0.123780094 -0.20626956 0.043688584 -0.066591606 -0.21771152 -0.21296206 -0.115743145 0.48782557 -0.21392116 0.12192 -0.020954164 0.053440556 -0.15751386
82 -0.17813592 -0.119800605 -0.0796526 -0.2831132 -0.2178923 -0.20399764 0.0018889124 0.28285283 0.16557795 -0.083008334 0.30457044 -0.15209737 0.007423848 -0.0070520933 -0.17921858 0.15469244 0.24596976 -0.034037262 0.10062792 0.297385 0.18256044 0.15817633 -0.14666788 0.23845601 -0.061246403 -0.07550574 -0.13546127 0.11772639 0.2116614 -0.50178653 -0.014427372 0.04987467 -0.5295399 0.3371742 0.31317216 -0.06265359 -0.01756248 0.055046618 0.24967891 0.21559057 -0.12363976 0.06329813 0.060614605 0.084514916 -0.21613394 -0.17344865 -0.1648567 -0.08110238 -0.18842494 -0.11203669 -0.031846188 0.1939064 -0.16523398 0.024924476 -0.19049451 -0.042111076 0.152666 -0.13172106 0.3997696 -0.22209471 0.20331672 0.11068193 -0.118809216 -0.12238999
85 -0.22783817 -0.042946298 -0.15637402 -0.26346788 -0.20457828 -0.34409946 0.0040216143 0.44077638 0.058828868 -0.10645524 0.22904049 -0.21072523 0.111234374 0.03332661 -0.07242722 0.20133969 0.18432468 0.08950505 0.07885975 0.20026875 0.20091689 0.1220185 -0.29957554 0.2609659 -0.079872005 -0.035817064 -0.21274778 0.06696373 0.22453678 -0.31295118 0.108069286 -0.011029522 -0.26994267 0.30668956 0.4500714 -0.03811849 -0.046243146 0.045011565 0.23354149 0.13819596 -0.18278858 0.011007873 0.055317268 0.07261745 -0.22594284 -0.26652208 0.011221346 -0.031594567 -0.14762722 -0.0022760418 -0.04070404 0.21122399 -0.16686273 0.1002988 -0.14272475 -0.110132754 -0.02815026 -0.063872874 0.49967694 -0.08307204 0.25991237 -0.10891539 0.022798622 -0.16801833
86 -0.16617407 -0.08622523 -0.20426737 -0.26776284 -0.29309958 -0.19319254 0.064194724 0.4529123 0.045780305 -0.06889987 0.27952716 -0.241085 0.037034936 0.12416236 -0.21882915 0.19098654 0.16298841 0.013283876 -0.0871253 0.19131222 0.18007855 0.1624983 -0.25454706 0.09967692 -0.11983875 -0.089588515 -0.11866218 0.15604778 0.10476122 -0.36734584 -0.090608455 0.13385078 -0.4349285 0.42948583 0.41474816 0.007834669 -0.15135297 0.12167125 0.1559203 -0.037748434 0.028544027 0.069548175 0.08573674 0.14230755 -0.12807634 -0.1939695 0.015481531 -0.01655477 -0.07452611 -0.12304433 0.009765773 0.11895321 -0.20959924 -0.03681852 -0.093133114 -0.14059182 0.036236987 -0.17433527 0.4828805 -0.22631304 0.225243 0.08627612 0.019893944 -0.073179886
79 -0.20880312 0.041895516 -0.113791876 -0.29211193 -0.06587525 -0.3239489 -0.053119276 0.42064163 0.118270434 -0.13876702 0.23871684 -0.21120833 0.18848726 0.2065003 -0.07271824 0.32875448 0.18431127 -0.09423651 -0.13960063 0.14921801 0.15977009 0.15736003 -0.26999813 0.2652266 -0.03309079 -0.028952457 -0.054495834 0.17507802 0.12543957 -0.47176668 0.06973648 0.0014325475 -0.29871255 0.29933858 0.46919352 -0.05495314 -0.026585247 -0.0020591624 0.2234681 0.03513063 -0.008177371 0.061951473 0.10789853 0.2022071 -0.09105046 -0.22904302 0.031031162 -0.039845426 -0.08161096 -0.009192374 0.104960635 0.1890126 -0.17071274 -0.017705288 -0.076941185 -0.048346374 0.0247022 -0.09189064 0.48539448 -0.15423264 0.3185581 -0.09620673 -0.1279341 -0.15698446
75 -0.24675278 -0.2828139 -0.24098006 -0.18299296 -0.30360323 -0.10575106 -0.20351197 0.42830515 0.060371533 0.0028274513 0.068385005 -0.2377725 -0.001108982 0.09073736 -0.11275768 0.22143905 0.111069895 0.047841605 -0.0139141595 0.18869513 0.13295707 0.08907918 -0.07536041 0.2282864 -0.060537208 -0.17404734 -0.22996375 0.2627366 0.35914278 -0.22950575 0.0072096847 0.033570196 -0.37198246 0.26800567 0.49108467 0.15142265 -0.07948242 0.29228133 0.3279423 0.15721086 -0.108312294 0.19830877 -0.029418372 0.32195172 -0.13907835 -0.16578485 -0.15914723 -0.037736587 -0.07195725 -0.110962555 0.090947665 0.10069459 -0.21827073 -0.13402253 -0.12791272 -0.11352535 -0.02651865 -0.13778354 0.5685506 -0.2703381 0.1706127 0.06352965 -0.11785823 -0.14481823
71 -0.14484185 -0.029062778 -0.122704476 -0.31775853 -0.13819414 -0.14190198 -0.10796266 0.38595587 0.13912657 -0.046573013 0.2198246 -0.22729047 0.10245897 0.08114815 -0.17165466 0.2452843 0.21242063 -0.074558206 -0.027128529 0.12412591 0.1259101 0.046791565 -0.1334951 0.23232459 -0.033230882 -0.030951336 -0.15971227 0.14264737 0.30017072 -0.35787404 0.021815062 0.084825054 -0.29970393 0.3806283 0.53781164 -0.11456192 -0.103797376 0.18749404 0.10057482 0.025839994 0.046846453 -0.059886176 0.044357095 0.23713128 -0.16759503 -0.11459834 0.05292212 -0.0062482483 -0.06212201 -0.09858875 0.033639792 0.027949132 -0.3804331 0.0059966547 -0.098132916 0.059268765 0.014874824 -0.32387134 0.5190383 -0.17282842 0.15955454 0.0839917 -0.16752443 -0.2117705
70 -0.1519872 -0.0474723 -0.17458917 -0.35254604 -0.24248412 -0.31853366 -0.09351034 0.3131131 0.062231682 -0.09089587 0.19377787 -0.122568615 -0.14742199 0.10404265 -0.18499053 0.2053157 0.35893074 -0.09473922 -0.10997849 0.2298449 0.30331102 0.21361504 -0.14136408 0.23981844 0.06348316 0.006645771 -0.09145079 0.21533804 0.060828254 -0.28196883 8.389828e-05 0.14472751 -0.21372455 0.38533962 0.4428383 0.013715957 -0.1179658 0.043612305 0.312118 0.06321637 0.04419614 0.11246363 0.055473186 0.14324607 -0.23449892 -0.18166028 0.1542118 0.046330493 -0.37767404 -0.08790567 0.03812206 0.03445854 -0.21205585 -0.09162795 -0.17805058 -0.12176931 0.09085687 -0.22444634 0.45335615 -0.18902057 0.25360027 -0.024816649 0.008645887 -0.21716063
88 0.010058257 -0.018791892 -0.2081627 -0.08258223 -0.076163545 -0.1891912 -0.18921055 0.49265108 0.056600336 0.028218362 0.16804084 -0.14604743 -0.0672531 -0.1350914 -0.14774047 0.19438182 0.0758085 -0.09812076 -0.006143205 0.22992952 0.2304996 0.04643204 -0.17405209 0.31870994 0.26632333 0.05653921 -0.14741656 0.06829047 0.17085458 -0.5766849 -0.09297343 0.15608926 -0.38660985 0.4500913 0.41791812 -0.18936066 -0.19455631 0.1286718 0.09221586 -0.03736396 -0.14148977 0.112150356 -0.034025524 0.071244605 -0.19841942 -0.26879224 -0.024169264 -0.0260553 -0.23923138 -0.031061921 0.037701875 0.042345766 -0.20954305 -0.0799616 -0.23242773 -0.08717023 -0.027016629 0.0031781595 0.40675917 -0.31883016 0.16682614 0.115878716 -0.0019249191 -0.26687437
80 -0.16963358 0.021512296 -0.19292827 -0.20344704 -0.16439384 -0.2818405 -0.046604946 0.35029548 0.12205621 -0.05915517 0.1482712 -0.2417704 0.045753922 -0.12837307 -0.07079557 0.404727 0.30553782 -0.061830524 -0.06992339 0.003255628 0.22739543 0.13447791 -0.07369636 0.24905093 -0.021155791 -0.15182003 -0.22483514 0.03965472 0.115628414 -0.40642306 0.030084196 0.0132685555 -0.37328577 0.3637638 0.41340894 0.0072051683 -0.0834299 0.07574545 0.23537719 0.05682508 -0.023738286 0.074567534 0.040524527 0.067731194 -0.15439431 -0.23912396 -0.0049045733 0.09043054 -0.12293744 -0.19398077 -0.012756988 0.02672176 -0.13489999 0.04067275 -0.17414671 -0.11412535 0.0014204265 -0.15281025 0.5688087 -0.16669805 0.33202082 0.03594799 -0.050221287 -0.104057215
74 -0.3045097 -0.12568028 -0.15134655 -0.20707469 -0.09929485 -0.20669423 0.14328687 0.25684443 0.07144558 0.031907097 0.15129815 -0.34869054 -0.030339783 0.01484457 -0.08764366 0.2522029 0.1397162 0.04500832 0.023040451 0.24938603 0.18032944 0.28113148 -0.31018317 0.3482245 0.028476253 -0.1468187 -0.06311306 0.2632331 0.0940761 -0.4104956 0.25073266 0.08654291 -0.449096 0.5421698 0.30582854 -0.13194841 -0.06885962 0.27817255 0.14084464 0.0959909 0.19981423 -0.11809201 0.098350696 0.056191873 -0.15410912 -0.26746884 -0.0050923126 -0.09167656 -0.19233972 -0.09681044 0.022078663 0.032206044 -0.32202014 0.15757859 -0.24023308 -0.071186095 0.11826656 -0.18605685 0.23694709 -0.16694835 0.4149442 -0.16738622 0.08370095 0.041406322
73 -0.091937065 -0.019812314 -0.057873785 -0.22321758 -0.43178046 -0.28552777 -0.12724896 0.28817654 -0.08983052 0.08139465 0.29467452 -0.15084821 -0.11428047 0.13018952 -0.33600295 -0.017116362 0.29070854 -0.12295181 -0.107802056 0.1792437 0.11836586 0.11540889 -0.11049554 0.389863 0.053045556 -0.14991032 -0.29874384 0.1408848 -0.02608824 -0.31931996 0.024639951 0.03245009 -0.23534417 0.46595383 0.50742507 -0.017368577 -0.0045713256 0.18473545 0.23870176 0.04687009 0.07402635 0.058684703 0.11280326 0.1892968 -0.30304587 -0.11609906 -0.115844145 -0.1313315 -0.08958887 -0.041454542 0.0025567408 0.0103208255 -0.26601171 0.013628773 -0.15147316 -0.0379606 -0.11862188 -0.20011978 0.6525012 -0.20571448 0.16956012 -0.044096116 0.007506964 -0.18731897
83 -0.12918904 -0.09053416 -0.16834266 -0.3463758 -0.23381494 -0.27556643 -0.03613888 0.36395842 -0.0367475 0.10139623 0.14269514 -0.30858362 -0.002613948 0.07216308 -0.16837603 0.24564609 0.27531677 -0.0120865265 -0.02920942 0.00026369857 0.19838215 0.19039044 -0.24183355 0.3614189 0.15661119 -0.12373632 -0.22614227 0.09427849 0.053500846 -0.4417918 -0.08856712 0.09577499 -0.32592732 0.33788124 0.32879642 0.06116863 0.014539995 0.2064258 0.4215575 -0.017432809 -0.044395804 0.06495524 0.07310508 0.19476691 -0.20228812 -0.15157244 0.07372034 0.108067945 -0.097104594 0.0009528663 0.12688899 0.11350688 -0.07903318 -0.039340124 -0.16742785 -0.089147694 -0.08926466 -0.4401529 0.4118805 -0.2541938 0.32986563 0.16188692 0.068709105 0.0009521361
92 -0.20293067 -0.23735325 -0.03774214 -0.4688019 -0.060970005 -0.16500247 0.06879999 0.48948362 -0.0034132686 -0.030076012 0.16912481 -0.11588494 0.112862304 -0.070170105 -0.17879288 0.34201512 0.042916894 0.05273842 0.016686838 0.1960415 0.26035956 0.12865394 -0.324291 0.036866684 0.09317145 -0.00810502 -0.25585815 0.22832415 -0.024088353 -0.52706045 0.08611626 0.18726945 -0.26212773 0.5081197 0.3935448 -0.19075693 0.07074808 0.16113588 0.2279806 0.20009966 0.15547888 -0.10479395 -0.21913584 -0.101145335 -0.047616556 -0.13408935 -0.35292128 -0.16146182 -0.17295203 -0.04386847 -0.03455204 0.26900467 -0.07267376 0.13614565 -0.15019512 -0.20624614 0.11969408 -0.10410176 0.43792063 -0.1157112 0.27414438 -0.016594443 0.0715819 -0.06868372
90 0.06194686 -0.2719618 -0.09095771 -0.31325838 -0.027453646 -0.19556491 -0.18284807 0.42498487 0.08521626 0.032836158 0.24920416 -0.3070543 0.06291287 0.01566875 -0.103520535 0.032254186 0.4097285 -0.0029451025 -0.041722294 0.25077286 -0.1855312 -0.13144064 -0.0010872739 0.44287008 0.018347425 -0.053109463 -0.11422834 0.057602536 0.25856024 -0.26961172 -0.17308135 0.1425772 -0.41687867 0.42281532 0.5865657 -0.07465114 0.01983904 0.18604654 0.19530664 -0.032753836 0.031891216 0.33928978 0.0901192 0.2413845 -0.24516831 -0.2074018 -0.078099415 -0.05015474 -0.20431647 -0.22682112 0.04367586 -0.05979678 -0.19498903 0.027531516 0.07599165 -0.15304498 -0.039158233 -0.26761138 0.3840313 -0.21325721 0.3731729 -0.14976087 -0.14838882 -0.2262788
69 -0.029162712 -0.009039468 -0.23049177 -0.33349124 -0.027376808 -0.3686557 -0.089306146 0.4692091 0.099391595 0.007970457 0.31261086 -0.26807794 0.05221727 0.12088915 -0.17451015 0.15738909 0.09448012 -0.06432897 -0.016812565 0.18954504 0.22274768 0.33232224 -0.24065357 0.40722692 -0.11575493 -0.015391232 -0.16379364 0.095798805 0.14926033 -0.24258724 0.08465898 0.11097324 -0.28750786 0.3850347 0.2547445 -0.032201532 -0.13515154 0.22431819 0.17627488 0.12809257 -0.0038964166 0.08227279 0.124281734 0.24168918 -0.11754861 -0.10891533 -0.18114989 0.15258609 -0.2803467 -0.17761195 0.0032044782 0.13988557 -0.12297377 0.12378626 -0.07251043 -0.09100722 -0.055004787 -0.30664447 0.33506244 -0.31308788 0.17931615 -0.093377374 -0.04843141 -0.35108832
15 -0.0642167 0.13700685 -0.19774511 -0.33983013 -0.2468948 -0.30719313 -0.20685622 0.38466084 0.15916258 -0.16659601 0.10779998 -0.16527675 0.040415607 0.05752142 -0.13789019 0.22095673 0.273387 -0.13830702 0.058596157 0.38421473 0.17974919 -0.1329959 -0.13986646 0.22467715 0.040988315 0.07375885 -0.24678962 -0.23907813 0.34960863 -0.6139137 -0.016949581 0.21883541 -0.11066768 0.04099657 0.3583776 -0.0648702 -0.15534213 0.17554757 0.108984396 0.108570956 0.28440067 0.09372053 -0.07258182 0.25645286 -0.23156644 -0.10341154 -0.15613727 0.020125808 0.14373136 -0.13875528 0.041149504 0.024217092 -0.37290567 0.12493312 0.033163026 0.02955385 0.04524004 -0.1280342 0.24383605 -0.25537091 0.26002 0.031459942 -0.2358495 -0.3246067
17 -0.035235543 0.025837256 -0.19388375 -0.2585 -0.19519262 -0.04622593 -0.22477242 0.35893607 0.20875016 -0.38969058 -0.048729476 -0.2886818 0.16213813 -0.056401715 -0.1426492 0.2030446 0.31096774 -0.20840086 0.11043016 0.48681533 0.14682351 0.11363768 -0.42323092 -0.10342931 0.13325761 -0.29587296 -0.21693347 -0.41455978 0.15174691 -0.50727916 0.27256846 0.16555886 -0.10048546 0.14422148 0.42396173 -0.017404217 -0.31870836 0.19479775 0.15963101 -0.026690515 0.040704776 0.22662382 0.14750901 0.16075304 -0.26989862 -0.0874914 -0.23203942 -0.3197712 -0.0614066 -0.12363091 0.1355531 0.031791866 -0.105606094 0.0047363453 0.023934605 -0.14840129 0.025465233 -0.27818498 0.6786552 -0.08931033 -0.1554578 -0.045683082 -0.3441291 -0.012288623
89 -0.092547424 -0.059967123 -0.19879468 -0.44842058 -0.29610303 -0.18630001 -0.018305706 0.49927357 0.0045528044 0.07593883 0.098259404 -0.14872785 0.025736181 -0.039670523 -0.013917773 0.07543086 0.37165186 -0.09721453 -0.006489384 0.08953556 0.05697583 0.19946419 -0.18537626 0.23447524 -0.15099667 -0.16630594 0.016893169 -0.02586773 0.22160149 -0.35226935 0.11677254 0.07300239 -0.41617057 0.35638887 0.30504486 -0.0476357 0.05417435 0.3245598 0.056500077 0.029752994 0.13027164 0.12095985 -0.21139689 0.33072558 -0.20833708 -0.34848052 0.030866459 0.022997728 -0.26837054 -0.13309819 0.083233535 0.03916914 -0.25687903 0.0683133 -0.1737777 0.10450086 -0.17679892 -0.23497401 0.4597351 -0.25831202 0.053179484 -0.02949084 0.036315527 -0.13238889
38 -0.05466801 -0.10046927 -0.092220455 -0.4908371 0.120482594 -0.46891478 0.1632865 0.1358109 0.1374451 -0.1963119 0.05194165 -0.17056115 0.2623411 -0.086547114 -0.014005084 -0.1737991 0.1996598 0.41612077 0.14637783 0.13801849 0.68473274 0.48488787 -0.33489123 0.2918229 0.25592297 -0.44872352 0.0012665224 0.11375951 0.023896225 -0.4973341 0.23711982 0.3023793 -0.14725763 0.35379088 0.25942796 -0.095857896 -0.058010235 0.049881782 -0.07734168 0.021264372 -0.07284548 -0.05787431 -0.123158425 -0.15330362 -0.0772699 -0.41325188 -0.27194062 0.0022159605 -0.10435225 -0.027171183 0.0056274943 0.26724324 -0.28594285 0.21199697 -0.01934194 -0.12666471 0.1411857 -0.11610505 0.5329386 -0.25099403 0.31745544 -0.017179022 0.057910204 -0.061105736
78 -0.19230756 0.023816688 0.042485025 -0.29808354 0.048987493 -0.26453668 -0.025441328 0.26812908 0.15782532 0.031322557 0.1255412 -0.15057427 0.18962832 -0.08141264 0.025988907 0.2243954 -0.12176075 0.10366277 -0.02824372 0.46010536 0.3560142 0.118854724 -0.23804094 0.047130063 0.0059257 -0.03482012 -0.26782298 -0.010639072 0.21694279 -0.50391936 0.12986669 0.41705468 -0.49524495 0.19059095 0.48267013 0.046316598 0.17841892 0.1478019 0.053057432 0.016131453 0.17183426 0.20371513 0.028497275 0.27978933 -0.14325458 -0.41902018 -0.1744975 -0.022552116 -0.06962879 -0.03353059 -0.090235464 0.010885765 -0.28047884 -0.29136842 0.03154471 0.032325707 -0.0041307304 -0.11809608 0.29289085 -0.22483839 0.28506532 -0.00094650406 -0.1460817 -0.2569468
54 -0.12953538 0.094087064 -0.37942913 -0.33149073 -0.20837787 -0.23834632 0.06263203 0.3953018 -0.049767576 -0.12906383 0.17144707 -0.16677515 0.34573576 -0.3696493 -0.17760007 0.07597846 0.15060334 0.26552472 0.058203794 0.43150142 0.56278276 0.017297937 -0.2302978 0.11678283 -0.060844347 -0.04831734 0.0073434794 -0.13156901 0.13388641 -0.32890812 0.25072423 0.17311168 -0.26197293 0.09588656 0.3005009 -0.13775963 0.13435489 0.06435679 0.3012255 -0.21134514 -0.037304066 0.03908662 -0.14424622 -0.015574861 -0.06956953 -0.16258001 -0.1985457 -0.16868767 0.02753956 -0.2096889 0.24640347 0.028388085 -0.3211361 0.12206945 -0.12140073 0.10647243 -0.057429403 -0.21852505 0.4519605 -0.15905073 0.12635608 -0.11087281 0.13943288 -0.05262182
36 -0.08197302 -0.0058328323 -0.07605362 -0.34869835 -0.14463133 -0.26597926 -0.24244514 0.11880195 -0.017062426 -0.2083106 0.08837192 -0.12584975 0.34881532 -0.34815508 -0.26418525 0.17736413 0.15812197 0.006357182 -0.20260525 0.42406282 0.4288634 0.1501489 -0.29421076 0.15692224 0.031996626 -0.2357759 -0.024614641 0.13867286 0.23705615 -0.50747514 0.22272144 0.08861627 -0.2720112 0.11067509 0.1498311 -0.09325875 0.046203956 -0.01434631 0.22693531 -0.15012348 -0.13952628 -0.0263469 -0.2126041 -0.0025150743 -0.19188319 -0.3230266 -0.29017916 -0.00057430303 -0.09871155 -0.17060633 -0.1553238 -0.079330616 -0.21316393 0.14437483 -0.24774775 0.038887657 0.05502553 -0.13670091 0.38919544 -0.15817098 0.20474695 0.13992406 0.05933262 -0.14234911
55 -0.093660414 0.0059329877 -0.02679907 -0.313706 -0.1731018 -0.3676871 0.12303274 0.25623554 0.03965273 -0.1889096 0.09481691 -0.53571266 0.11897202 0.075616226 -0.11725934 0.0232667 0.024566008 -0.048621356 -0.15697399 0.3928314 0.6435811 -0.113526076 0.03530907 0.15221749 -0.031712487 -0.22423255 -0.09598248 -0.22107317 0.4879209 -0.4513975 -0.106770866 0.03261912 -0.16640015 0.31606477 0.42840758 0.08439828 0.14822511 -0.035865784 0.043237172 -0.25149542 0.052331656 0.006578335 -0.21855251 0.16546313 -0.31257406 -0.33146703 -0.11668927 -0.053888336 -0.13254991 -0.17466177 0.14156666 0.007198866 0.09208074 0.04808247 -0.19525939 -0.12738353 0.19801895 -0.39892033 0.31412974 -0.13797544 0.12769148 -0.33424607 0.10421075 -0.122355364
48 -0.16953468 0.1719617 -0.397913 -0.26665062 -0.098478004 -0.29081842 -0.017101562 0.25573903 0.03860732 -0.09640371 0.15813184 -0.15628476 0.27880004 -0.4531367 0.16556275 0.058038644 0.09798651 0.06391949 -0.1956691 0.39581713 0.48945996 0.10146761 -0.32450688 0.019128324 0.16988018 -0.14516197 0.07456569 0.0812767 0.27544066 -0.48683658 0.2563846 0.25618187 -0.21389109 0.1608796 0.19545043 -0.2741232 -0.00860124 0.1725439 0.22388388 -0.033649538 0.013971769 -0.045911383 0.08277916 0.09813528 -0.24193804 -0.21721327 -0.12556219 0.07407118 0.10038506 -0.068106525 -0.14701779 -0.116455294 -0.11798974 -0.025793912 0.052207503 -0.12831998 0.051201478 -0.32013455 0.32026362 -0.33804232 0.32777596 -0.24171835 -0.04857161 -0.23442006
2 -0.4244056 -0.24143349 -0.06795441 -0.4586103 0.24633062 -0.88897383 -0.40827253 -0.055362906 -0.5940952 -0.24380901 0.1884193 -0.44288293 0.28218278 -0.5880994 0.07536873 0.015502801 0.104113705 0.24561699 0.22859702 0.47822335 0.8254881 -0.36104614 0.045601808 -0.33921123 -0.038283672 0.25534979 0.3249603 -0.3734748 0.030790081 -0.6680331 0.0309437 0.4175214 -0.102980055 -0.39542392 -0.01659111 -0.4810292 -0.19209473 0.77769345 0.18145432 0.088890165 -0.30991554 -0.07773871 0.051161095 0.31449738 0.15739895 -0.18892138 -0.21571252 0.120656304 -0.06695081 -0.16624969 -0.20140551 -0.32556018 -0.40723115 -0.12884013 -0.16763237 -0.014760359 0.11249754 -0.31653097 0.4684878 -0.18039596 0.36278558 -0.22292845 0.15481922 0.03976302
37 -0.067419976 -0.10262236 -0.221125 -0.18492126 0.08618568 -0.19172385 -0.0007304665 0.3213918 -0.1267729 0.07442702 0.20909728 -0.28636768 0.37145355 -0.1983175 -0.052313287 0.30317074 0.20536484 0.27611718 -0.1098201 0.39466363 0.5901263 0.07553871 -0.26926172 -0.0016334656 0.020308679 -0.19101986 0.043724403 0.12141766 0.21725522 -0.60301363 0.22795673 0.2541074 -0.20676787 0.16145399 0.14149669 -0.1680548 -0.12877294 -0.051344104 0.027832009 -0.04159435 0.033757214 0.08341007 0.037987236 0.2642477 -0.40613562 -0.11198159 -0.22912906 -0.041290168 -0.14074019 -0.35188705 0.016204929 0.03328619 -0.30498594 -0.010643937 0.121148214 -0.14675339 0.0686362 -0.15271133 0.21955858 -0.15237752 0.333452 -0.18680525 -0.0064685405 -0.370686
51 -0.14188085 -3.851202e-05 -0.29009047 -0.45073813 -0.173753 -0.39296225 -0.0949126 0.17977862 -0.088854186 -0.032675944 0.20447458 -0.060993504 0.38831365 -0.29516113 0.030232808 0.005048398 0.18368173 0.20773947 -0.12934336 0.29563084 0.4650861 0.059183545 -0.28148437 -0.07321523 0.223575 -0.24532293 0.23771316 -0.06803987 0.14861293 -0.59002066 0.20378697 0.20413327 -0.21636988 0.28744346 0.15514132 -0.14643373 0.18718433 -0.025842305 0.33060324 0.110748425 0.026934015 0.1253232 0.08377663 0.057942767 -0.23413293 -0.08416028 -0.12638119 -0.0068307533 -0.11089734 -0.12128896 0.0051857373 0.009784715 -0.25380957 0.1054951 -0.12270004 0.110648595 0.02739485 -0.2103134 0.44324186 -0.18001053 0.35145625 -0.090308376 0.07320127 0.04209079
44 -0.18152733 0.03081217 -0.27367353 -0.3170606 -0.020584574 -0.22409703 -0.1423718 0.3378394 0.043733474 -0.31230092 0.013007497 -0.46903157 0.33055156 0.020471813 -0.03206229 0.061153986 0.09504481 0.11631259 -0.07595371 0.48017636 0.2561759 -0.03932815 -0.1355631 0.108993724 0.11939757 -0.07115441 -0.073703006 0.12767236 0.62532705 -0.7020533 0.18229933 -0.06415938 -0.15243694 0.21419498 0.05718586 0.20093478 -0.14434375 -0.22368065 0.09820226 -0.08724518 0.14992526 -0.053990614 -0.24459688 -0.12687503 -0.012745654 -0.18803208 0.019901676 -0.38696718 -0.12911542 -0.16553928 -0.2436268 -0.30269572 -0.24645318 0.14085418 0.004972651 0.07454014 -0.065932855 -0.26109695 0.51771057 -0.46413505 0.056443986 0.0812267 0.20345414 -0.05722576
29 -0.5850555 -0.26304975 -0.062393606 -0.34865263 -0.018536858 -0.4898394 -0.38149282 0.4554401 0.2823952 0.045791723 0.22549777 -0.1851195 0.48184296 -0.5297381 0.19271538 -0.22616062 0.32625416 0.018303681 0.41522753 0.08828257 0.44061747 0.56411326 -0.3318794 0.31048262 0.00015538659 -0.5623547 -0.276315 -0.052031174 -0.38872734 -1.027095 0.26942626 0.25403944 0.38075748 0.18043235 0.20792301 0.05205637 -0.012634507 -0.056756254 0.0064231814 0.11597241 0.035566673 -0.1452539 0.064992815 0.14349623 -0.21621636 -0.47607282 -0.31514472 0.076061465 0.18347952 0.21585043 0.54636896 0.16578801 -0.51206976 0.33344898 -0.38252062 -0.12815689 0.61145335 0.05405568 0.27365088 -0.2936702 0.122781076 -0.23978326 0.1996435 -0.009894829
53 -0.08744773 0.018784348 -0.07968529 -0.26825795 -0.20347904 -0.36239615 -0.16643406 0.4859278 -0.042650715 -0.038615283 0.0067021023 -0.24983293 0.31530046 -0.29806605 -0.019686088 0.19338277 -0.019661471 0.39507815 -0.10357142 0.27984422 0.26606438 0.23491412 -0.30269912 -0.043508258 -0.01681194 -0.22149555 0.07322699 -0.017461624 0.033745334 -0.61661595 0.18348664 0.110485666 -0.16059633 -0.025425574 0.29859963 -0.37535554 -0.05045448 -0.16840674 0.25213894 0.08987358 0.004795869 -0.059892986 0.026194884 0.21673506 -0.36776862 -0.4647906 -0.124883406 0.056735568 -0.20710646 -0.17197777 -0.19232541 0.04774046 -0.19072436 0.070777096 -0.13715602 0.14402226 0.12664303 -0.37053666 0.4690919 -0.027335988 0.10282134 -0.28221115 0.115327656 0.030535942
16 -0.22765464 -0.039543606 0.08612481 -0.28939456 -0.30189872 -0.3703076 -0.46900994 0.05622576 0.17837206 -0.1653295 0.44172588 -0.5003849 0.14856835 -0.35835895 0.015543541 0.27401248 0.19002481 0.043578222 -0.0044347816 0.13268422 0.39111313 0.059506327 -0.4808538 0.14573047 -0.09809606 0.03415165 -0.09651582 0.087278776 -0.075257674 -0.50171393 0.04412091 0.23384553 -0.20811543 0.25130227 0.28879774 -0.154166 0.16414759 0.31585145 0.22043644 0.051911972 -0.07478353 0.15116252 -0.17215039 -0.15618631 -0.38960165 0.05379005 0.05149146 0.17492415 -0.112194 -0.10848404 0.039478492 0.0950822 -0.48652017 -0.012649399 0.084536724 0.061623216 0.072753206 -0.13858104 0.29321453 -0.13452074 0.14160842 -0.14154695 0.054728523 -0.07772177
43 -0.15602405 0.002863278 -0.09117106 -0.40689424 -0.07790472 -0.44218957 -0.0025751835 0.20225339 -0.0037420702 0.05184895 0.20073423 -0.1391456 0.28429234 -0.11203463 -0.016158616 0.26549774 -0.029999752 0.13151708 -0.18188877 0.33701628 0.46112156 -0.10197149 -0.2582187 0.11142076 -0.005116201 -0.38655326 -0.05049874 0.06388016 0.2645941 -0.48415375 -0.15310428 0.07982747 -0.1933793 0.17359374 0.22406356 -0.13225342 -0.08262851 0.16829015 0.10794494 -0.0040673194 -0.044601154 0.16922356 -0.20546909 0.41064125 -0.08339707 -0.20347784 -0.023622649 -0.2840104 -0.1240206 -0.32000026 -0.048900593 0.092936695 -0.12553619 0.033363663 -0.10382122 0.098395266 0.104692705 -0.29888982 0.39770752 -0.36567718 0.036969513 -0.3146032 0.114334434 -0.1462734
39 -0.31532812 -0.022927549 -0.27358565 -0.2946133 -0.16350697 -0.30721784 -0.18970823 0.32539946 -0.04985825 -0.08364604 -0.010438153 -0.19168033 0.45211256 -0.30172023 -0.22361954 -0.02770054 0.24837133 0.09266539 -0.37042904 0.26385638 0.50995916 0.055354405 -0.30266142 0.002398285 -0.20136511 0.048585534 0.21805142 -0.033244375 0.18689059 -0.47257775 0.010431796 0.37588343 -0.15853892 -0.09273129 0.25219113 -0.18520853 -0.11243511 0.07456025 0.10054657 0.14535853 0.0843124 0.1649669 0.008733426 -0.02510165 -0.20251955 -0.30935943 -0.16811751 -0.091453694 -0.10793764 -0.10711631 -0.14917396 0.12439179 -0.28222376 0.053451687 -0.27097255 0.080035135 0.12263974 -0.32253206 0.4045118 -0.14845747 0.21991201 -0.17159326 0.116282836 0.021445682
47 -0.2947446 -0.12710759 -0.32446846 -0.18288554 0.017433153 -0.37217557 -0.013958903 0.15289399 -0.16351818 -0.14655498 0.017013337 -0.11225284 0.39182484 -0.34950525 0.06996312 0.24589203 0.2643985 0.35995975 -0.023286616 0.41031858 0.42072234 0.01744138 -0.5666801 0.11773562 -0.20000061 -0.10312557 0.19916798 -0.044120323 0.19071777 -0.48063865 -0.14998378 0.15743 -0.009178767 0.21094431 0.12581599 -0.33321443 0.0081614 0.025156163 0.1465278 -0.0074539715 0.036752343 -0.15535994 -0.1049153 0.19299003 -0.24388367 -0.39038834 -0.16571586 -0.12100087 -0.19970453 -0.0226548 -0.06130035 0.17170908 -0.36946312 -0.06414399 -0.034575388 -0.06389593 0.057509538 -0.15780912 0.44522294 -0.29692835 0.21809429 -0.2938799 -0.06405561 0.025373446
41 -0.29295832 -0.05095817 -0.09044125 -0.25629324 0.036335714 -0.20469517 -0.2848988 0.22120878 -0.16553861 -0.23346122 0.10438479 -0.099739514 0.25850645 -0.24416903 -0.13794613 0.2904375 0.20128974 0.28647122 -0.27483594 0.45598677 0.4146481 0.26486745 -0.3169709 0.10644816 -0.015535097 -0.32593435 0.07508046 -0.096781276 0.12538452 -0.5192373 0.22761488 0.18586677 -0.029577201 0.25229383 0.23872694 -0.1647876 0.024698252 0.18447275 0.12190394 -0.13414209 0.09098116 -0.14850755 0.05738455 -0.05256639 -0.24528542 -0.21433744 -0.3127015 -0.040168207 -0.102010705 -0.20207489 -0.029109754 -0.13721187 0.0013770664 0.18286209 -0.08384933 0.1951226 0.12329314 -0.2582439 0.43060857 -0.34080285 0.26800242 0.041376498 0.23240946 -0.33816642
5 -0.45458716 -0.123354234 -0.050499763 -0.13790874 0.2274241 -0.15527259 -0.092574194 0.42937714 -0.21460944 -0.301344 0.06711567 -0.18773854 0.4300141 -0.008295629 0.12680382 0.050447643 0.04724094 -0.008770468 0.11832511 0.74607617 0.65849626 0.14847276 -0.268959 -0.1643475 -0.28212133 -0.08172677 -0.14287242 0.11927078 0.43784654 -0.67664707 -0.1551015 0.09327082 0.020579606 0.538624 0.2667359 0.053671237 -0.012481454 0.12507647 -0.07882585 -0.13469996 0.007078009 0.540584 -0.028799428 -0.23566858 -0.2465392 -0.3296839 -0.13759305 0.18093018 -0.019990109 -0.21016455 -0.06985175 -0.054007318 -0.17448978 -0.14600296 -0.15052018 -0.046213347 -0.38619646 -0.54195553 0.05256073 -0.12633377 0.101564355 -0.35843 -0.4294623 0.02909629
40 -0.18275079 -0.21889018 -0.23089142 -0.39095646 -0.32665077 -0.2258647 -0.23995447 0.29013905 0.0049533565 -0.12008229 0.21720497 -0.25076473 -0.093905754 -0.15119363 -0.07658742 0.055964094 0.10793985 0.16780894 0.124641046 0.22951843 0.4754604 0.4073052 -0.38513497 -0.14465308 0.15314965 -0.12844954 0.27463782 -0.07324608 -0.10626788 -0.6965132 0.11230013 0.031970367 -0.14198408 -0.16018021 0.41357216 -0.08776026 0.23256084 -0.12458539 0.31541333 -0.12477717 -0.13592836 -0.3695008 -0.12354484 0.0025304344 -0.23693183 -0.65368056 -0.13590969 -0.12833014 -0.16131829 -0.18904814 -0.16964999 -0.06314961 -0.20172432 0.019541303 0.19468434 0.12506004 -0.1160411 -0.53699815 0.2622389 -0.302186 0.16879445 -0.09679564 -0.16723892 -0.21030825
49 -0.32470474 -0.10257419 -0.28624743 -0.2981526 -0.22551507 -0.40997106 0.113061 -0.0840283 0.07520638 -0.17497924 0.0164325 -0.17704226 0.45896074 -0.11274417 -0.03583975 -0.027391257 0.05146038 0.5399469 0.005856306 0.18417346 0.27164775 -0.06777629 -0.59579235 0.08075385 -0.15478615 0.16035996 -0.13763596 -0.253792 0.15899451 -0.5897159 0.10988191 0.2700433 -0.051741563 0.18391308 0.30833882 -0.1177388 -0.023705404 0.16234328 0.3215709 -0.061057292 0.13869043 0.23584148 -0.06145443 0.13073146 -0.100045934 -0.28133482 -0.5090215 -0.30991524 -0.22030666 -0.17389092 -0.123790644 -0.41411257 -0.36169943 0.039416388 -0.12860057 0.084994264 0.14259547 -0.20572145 0.32596734 -0.00036785347 0.16272147 -0.24105841 0.010301151 -0.35271117
42 -0.19087 -0.08705056 -0.25349402 -0.2824483 0.26251334 -0.4715482 -0.010080173 0.09331761 -0.25616044 -0.034293976 0.10162638 -0.06721867 0.34751442 -0.31516817 -0.25110492 0.087392576 0.20997354 0.08541896 -0.19186966 0.20072003 0.30465904 0.17436165 -0.33834815 -0.15755302 -0.0651134 -0.21342923 -0.069465145 -0.065067455 0.1991084 -0.6903838 0.11976789 0.04364931 -0.1619636 0.14891545 0.23541795 -0.096419275 0.018447926 0.27629656 0.25201368 0.0073722373 -0.02639327 -0.05679463 -0.076310135 -0.039712396 -0.35287878 -0.088058725 -0.04122649 0.07338857 0.007691995 -0.18114907 -0.121396124 0.112753995 -0.48135957 0.18864167 -0.02805344 -0.015170831 0.05125244 -0.2654912 0.41238397 -0.20564637 0.1534939 -0.28526378 -0.092310935 -0.22999933
91 0.006736083 -0.24755076 -0.3424241 -0.446164 -0.15776746 -0.04618296 0.0028183411 0.24346867 -0.047165994 -0.26998776 -0.03188047 -0.3892795 -0.03611251 0.2273442 0.2659244 0.20942071 0.22052555 0.06862205 -0.29704317 0.5715904 0.3766075 0.33959606 -0.09511653 0.04499671 0.12551175 0.24989302 -0.20125611 0.122010045 -0.2506483 -0.47901174 -0.030852634 -0.18655443 -0.14077742 0.2992136 0.62904906 -0.09166402 0.11827818 0.066936485 0.353682 0.10399852 -0.19547524 0.19208619 0.07137015 0.21795687 -0.21805575 -0.44608435 0.09103704 0.28810218 -0.1742836 -0.12201052 0.11065819 0.094162926 -0.5011813 0.23534425 -0.07239094 0.3098338 0.15622279 -0.35209 0.4245964 -0.052723 0.015993437 0.13418676 0.20013829 0.0024128002
58 -0.235427 -0.52287 -0.023015762 -0.13666755 -0.041163962 -0.33945855 -0.01305646 0.28812027 -0.17170456 -0.027757144 0.2911824 -0.0043318556 0.32482862 -0.0855027 -0.061475184 0.12559877 0.32089287 0.16953412 -0.1652842 0.4582668 0.34126228 -0.039122824 -0.3279493 0.024367495 0.17209603 -0.1874323 0.18016835 0.13530906 0.28030708 -0.5751499 0.27721304 0.009765233 -0.29953715 -0.036866177 0.29624256 0.1658841 -0.19588965 0.109105915 0.1132483 -0.24061765 0.1858354 0.28714648 -0.042504653 -0.21960467 -0.13473575 -0.079859726 -0.32095402 -0.14313889 -0.14379765 0.0110776825 -0.044270977 -0.07991738 -0.17595308 0.15802205 0.14471234 0.21301135 0.17676085 -0.29410598 0.61214757 -0.34264258 0.24597798 -0.44765916 0.02517946 -0.19403437
10 -0.059770588 -0.3144666 -0.13925032 -0.45105794 -0.039808135 -0.11028479 -0.17867815 0.5481217 0.07820721 -0.17116764 0.11766169 -0.031461798 0.09146534 -0.093489334 -0.13540913 0.09435134 0.32813126 -0.2437563 -0.13334483 0.28548637 0.53900975 -0.27583247 -0.4173279 0.17009364 0.17697276 -0.14520206 -0.3185783 -0.15297861 0.13753171 -0.38076308 -0.0034982855 0.049367644 -0.3955921 0.32283205 0.29336327 0.3639418 -0.1856059 -0.049222916 -0.019394947 0.10031094 0.00683047 -0.03752293 0.24896719 0.24099661 -0.16103163 -0.19200394 -0.22113661 0.16509494 -0.034272503 -0.14272207 -0.3382575 0.011293754 -0.3955828 -0.2890674 -0.10058519 0.26343262 0.07400134 -0.09103538 0.409051 -0.35084176 -0.019861674 -0.48810622 -0.1895729 -0.0022477813
12 -0.26060253 -0.17455922 -0.39602718 -0.27301455 -0.06272739 -0.4772486 -0.37120846 0.2386727 -0.17146209 -0.19528711 0.49600074 -0.079993494 0.29910532 -0.5934922 -0.23826289 0.1016604 0.097971246 0.21493101 -0.15067758 0.36882457 0.6831785 0.18013364 -0.20590256 -0.028823625 -0.0039777877 0.19573589 0.1623759 -0.42524734 0.1722578 -0.6429371 0.25868264 -0.29076424 0.16872932 -0.13826369 -0.050736133 -0.19372554 0.26959565 0.49584717 0.0024568283 -0.024628825 -0.099636905 0.38082856 -0.31760553 0.1713564 -0.03897554 -0.2697943 -0.22194207 -0.21547616 -0.12206375 0.1446923 -0.24816513 -0.2361555 -0.50062317 -0.38709253 -0.13526516 0.21771154 0.30632925 -0.47307953 0.42220965 0.12804103 0.66462207 -0.09179955 -0.18041018 0.23202224
11 -0.3445322 -0.28071612 -0.14918053 -0.28110313 -0.39054525 -0.6805512 -0.63429624 -0.22926052 -0.11615425 -0.16354115 0.009371333 -0.25571144 0.6132439 -0.29012248 -0.2454647 0.08313968 0.26167646 -0.17463638 0.3035071 0.62403893 0.48594818 -0.4842771 -0.42035878 -0.3382571 0.21042335 -0.088390194 0.013944938 -0.20983121 0.10948488 -0.5161344 0.1849601 0.22148262 -0.13069879 -0.08319835 -0.0026245234 -0.5215064 -0.011257999 0.14270844 0.17326477 0.18139862 0.33895594 0.04299184 0.14806475 -0.058976524 0.20354931 -0.66041934 -0.13974552 0.3552279 0.0037806246 -0.27627242 0.34694585 0.11024783 -0.5092361 0.1603291 -0.13075563 0.016705712 -0.08862314 -0.29534125 0.40395248 -0.11907947 0.04574953 -0.1129895 -0.03839977 -0.30272833
50 -0.48463014 0.20699778 -0.29080558 -0.22431628 -0.1115145 -0.27192745 -0.024668816 0.31448573 -0.14897403 -0.3100454 -0.06491039 -0.30643043 0.23791394 -0.40931353 -0.11172147 0.06621135 0.09701562 0.17614998 -0.098710276 0.3252402 0.45618948 -0.14451447 -0.16038613 0.050101656 0.10907996 -0.19687416 0.18935601 -0.054348823 -0.08110858 -0.72406906 -0.1433174 0.22028576 -0.31087646 -0.08313177 0.19518113 0.04492778 0.113130026 0.016272549 0.24511316 0.13117246 -0.05675813 0.06042053 -0.18117759 0.061220855 -0.17194223 -0.34302258 -0.4608252 -0.038565326 -0.13934575 -0.2350924 -0.105554715 0.05518926 -0.14888203 0.17262556 0.13048121 0.2853785 0.071476474 -0.42731073 0.4644112 -0.026411079 0.25247335 0.015486773 -0.08672992 -0.15318514
45 -0.16253123 0.3937 -0.37360227 -0.21108176 0.28528497 -0.2118016 -0.070581354 0.11096295 -0.0015242237 0.09802121 0.2936707 -0.34564945 0.17150182 -0.3716297 -0.15477908 0.2450139 0.17667839 0.17385039 0.05323404 0.38058072 0.5535096 -0.087739594 -0.2871619 0.031035986 0.18085846 -0.11880879 -0.082735315 0.049064573 0.4453998 -0.4071969 -0.07634847 0.4709017 -0.0019788875 -0.17929384 0.41412526 0.03461563 -0.2149678 0.31054273 0.29432675 0.007990979 -0.061428916 0.029391719 0.0059977905 0.20605648 -0.089861386 -0.22065195 -0.10353679 -0.14424852 -0.21818218 -0.12958361 -0.2982074 0.18753323 -0.34021226 0.39105847 0.0021214243 0.24276173 0.008574049 -0.39178625 0.22649752 -0.35476458 0.3952677 -0.3269443 -0.012296339 -0.02987727
95 -1.4536613 0.8473662 -0.77641153 -1.3993931 -0.36047634 0.6862593 -1.338596 -1.107258 -1.3017519 -0.5797048 1.8126763 -0.40978476 0.76254493 -0.23798475 -0.3340107 -0.14471525 -0.4377626 0.097796224 0.074876666 -0.13810739 -0.24542347 0.89595675 -0.5863165 0.5997369 0.626357 0.56797457 -0.09925148 0.26695108 0.5144922 -0.01963247 -0.90124166 -0.09686154 -1.1607732 -1.4037042 -0.11527964 -1.4804045 -0.5648534 0.50859547 0.31888646 0.6850442 -0.06725475 0.19826984 -0.799944 -0.87248886 -0.9741567 -0.31225175 -1.2785407 0.3366711 -0.15934572 -1.0590112 1.2369839 -0.3831829 -0.98079574 -1.2156683 0.4663728 -0.340027 0.2377957 -0.39929354 1.4963268 -0.5355855 0.7348516 -1.6664579 0.95160073 0.6681212
93 -0.37118086 0.002104046 -0.36551434 -0.23145016 0.2636667 -0.6983226 -0.18671983 0.11187006 -0.27526802 -0.33860552 0.41579837 -0.043602888 -0.055064376 -0.26839113 0.17571801 0.2763365 0.20993705 0.07275243 -0.1808864 0.082566895 0.34224308 -0.06888807 -0.18431234 -0.03521678 0.29774755 -0.12337627 0.24379514 0.03820558 0.25186566 -0.52871144 0.22436641 0.2626091 -0.25756612 0.14783533 0.3755065 -0.20282722 0.12743022 0.28556168 0.20254903 -0.12796205 0.20267132 -0.039584324 -0.03828412 0.42765507 -0.30155137 -0.1795666 -0.15730542 -0.0982337 -0.05358431 -0.25666437 -0.16516255 0.07936118 -0.68659896 -0.024593452 -0.23027731 -0.27449274 -0.1154171 -0.009720302 0.33102074 0.06002071 0.0025409178 -0.12796606 -0.016348284 -0.22704317
46 -0.32722127 0.016189624 -0.27077353 -0.31581184 0.040568944 -0.35237902 -0.1257956 0.21518473 -0.007648498 0.043275848 0.3860337 0.05052692 0.4011699 -0.6018666 0.101274885 0.08314239 0.25514942 0.45292944 -0.14477922 0.21747242 0.75555617 0.017425131 -0.072211 0.04775944 0.17925242 0.05202119 0.110279106 -0.15182748 0.363384 -0.26883045 -0.0060414234 0.1185628 -0.43084374 0.14345807 0.24902308 -0.13000771 -0.13140713 0.5163106 0.28527158 -0.0099655865 0.23734635 -0.048550986 0.058740743 0.16533059 0.0730648 -0.2866666 -0.17017403 -0.23606253 -0.13016187 -0.30415845 -0.0210098 -0.017812705 -0.4497447 0.31836265 0.31488118 -0.23558384 0.11375878 -0.2866164 0.3391947 -0.1060042 -0.05157262 -0.29693103 -0.1123753 -0.10933521
56 -0.41357544 -0.36847556 -0.19924131 0.13441946 -0.2974998 -0.60737544 -0.07847704 0.2350964 0.31185907 -0.65887415 -0.28539142 0.15887338 0.45940676 -0.53257686 -0.11774924 -0.13799664 0.15704848 0.40283427 -0.10509186 0.33807316 0.07668316 0.2604099 -0.20851405 0.510115 0.33683294 0.33306718 0.19810364 -0.07878072 0.28263634 -0.4329831 0.28190553 0.2931696 -0.2054268 0.1937813 0.061835077 0.12377207 -0.00041510476 0.18329339 0.3533921 0.12613674 -0.05132759 -0.12976043 -0.4132417 0.22587042 -0.15283751 -0.40970728 0.16037905 -0.3192219 0.09895366 -0.77945644 0.10553961 0.17558712 -0.17241031 0.021339715 -0.09082594 0.123489805 0.048885208 -0.45297366 0.5368161 -0.20031817 0.22564724 -0.35616603 0.120374694 0.24676618
77 -0.08138461 0.2552716 -0.14270128 -0.3100047 0.16658704 -0.5508179 -0.18753195 0.322644 0.15852305 -0.040580742 0.07184869 -0.19812578 0.065846086 -0.2603347 -0.22420149 0.09115832 0.19559087 0.1250646 -0.082351916 0.45589125 0.5474748 0.04194049 -0.08308093 0.05668269 0.06532538 -0.069089375 -0.069691755 0.11304063 0.23936331 -0.1860963 -0.26910678 0.2456968 -0.26041403 0.25309092 0.33220086 -0.029034803 0.19977587 0.23921078 0.14254844 0.25831226 0.20033649 -0.10126828 0.13947749 0.397024 -0.15828606 -0.050647672 0.09390066 -0.0290432 -0.21896228 -0.23908944 -0.1453609 -0.17599095 -0.53700817 -0.13179086 -0.2582916 -0.4771961 -0.03363452 -0.014185829 0.5404447 -0.06889964 0.17227113 -0.025215251 -0.20697644 -0.1640146
57 -0.27851555 -0.18000132 -0.41010675 -0.30416003 -0.14806293 -0.40819246 -0.3902365 0.13287315 -0.25659546 -0.22273855 0.0061142957 -0.48601365 0.579975 -0.3754151 0.21728975 -0.081489965 0.21032357 0.009295194 -0.3136345 0.23576057 0.3824541 0.16685311 -0.40588588 -0.24117035 0.13217849 -0.026260974 0.47068417 -0.058654506 0.35826874 -0.5416753 0.24541119 0.25980863 -0.13905542 -0.04236708 -0.0053009856 -0.21229245 0.097719535 0.47773165 0.2043326 0.033573095 0.22679368 0.076428354 0.008582239 0.11000897 -0.20488234 -0.06953509 -0.15709768 -0.19507506 -0.40444463 0.1511713 -0.17886406 0.05071752 -0.34747082 0.00837591 0.08176959 -0.15408656 0.09737472 -0.16892487 0.50439346 -0.22514345 0.19045971 -0.16609876 0.09011149 -0.044823278
84 0.08031983 -0.11578944 -0.12052567 -0.32142496 -0.14519385 -0.34182808 -0.45060676 0.18355206 0.2818984 -0.2507689 0.17415759 -0.4763347 -0.22597675 -0.04883617 -0.48594815 0.53467095 0.041078568 0.12565106 -0.15636212 0.23645507 0.3109081 0.2662207 0.07462458 -0.04355999 -0.087993704 0.20799412 0.0012393063 0.16469277 0.23141454 -0.17154196 -0.015816215 0.39032587 -0.23038445 0.4995763 0.04579735 -0.14528418 -0.26889905 -0.021922167 0.13935457 -0.23831937 -0.35262886 -0.03758533 0.063264884 0.66739726 -0.19958884 0.14017887 -0.037540924 0.37884614 -0.19747876 0.09576932 0.19416358 -0.12454941 -0.50930965 0.37037715 -0.3158367 -0.061014522 -0.13335647 -0.4606248 0.49329373 -0.56235224 0.2916458 -0.03952737 -0.25734636 0.1706221
60 -0.35082543 -0.3082522 -0.27991682 -0.02557096 0.08335293 -0.20806526 -0.5563282 -0.4305697 -0.43019024 0.26091498 0.4371325 0.00072328467 0.41940448 -0.0702051 -0.37658322 0.051797766 0.3314956 0.70714545 0.16615984 0.6879319 0.33678204 0.028245497 -0.22477445 0.17900425 -0.79618794 -0.15875557 0.3224928 -0.34176806 0.093727164 -0.24513942 0.084541574 0.6253631 -0.24939464 0.41179538 0.2926429 -0.077547915 0.33216533 0.07137714 0.6421522 0.30959663 0.081716806 0.3935229 -0.22327316 0.35384357 0.40400398 -0.4355736 -0.52008486 -0.099952474 0.07845359 -0.093876995 -0.59411997 -0.095671915 -0.53601545 0.10788951 0.3093699 -0.38865152 0.45966265 -0.35473394 0.44122034 -0.3018705 0.2417584 -0.87974954 0.062409073 0.08654192
30 -0.39726812 -0.3344927 0.03346394 -0.0067497664 -0.18831038 -0.7241436 -0.15898107 0.2737612 -0.039123505 -0.1939692 0.3853519 -0.1945881 -0.051792074 -0.12782022 -0.16351278 -0.1070031 0.44318944 0.014800785 0.450559 0.15897347 0.38606775 0.057135783 -0.33739096 -0.18234643 -0.05109645 0.17540203 -0.1433599 -0.020893956 0.32591045 -0.15729018 -0.13395569 -0.056217786 -0.13192217 0.3123299 0.069588356 -0.73804176 0.11394291 0.32496437 0.3126817 0.028362505 0.3730474 0.2859161 0.110511415 0.06811691 -0.1640985 -0.23844272 -0.18122558 0.5454258 0.23201692 -0.21386826 -0.06949938 0.054518394 -0.40684167 -0.10623515 0.09129126 0.5279788 0.113721654 -0.26732916 0.46851555 -0.1651447 0.4117476 -0.07127714 0.0011842023 -0.10781098
32 -1.2901897 0.868975 0.55410755 -0.4341093 -0.76072985 -0.09774287 -1.1372516 0.38480124 -1.132569 -0.000115678464 0.8048916 -0.66361994 1.1157669 0.484732 1.0589802 0.6185271 0.86033803 -0.1855938 1.0252885 -0.39898297 0.64289427 1.6370001 -0.7907486 -0.14540254 0.9743969 0.5807194 0.08927597 0.14342758 0.48872247 0.038136408 -1.4779046 0.22183812 -0.7947766 -0.23437513 -0.3497396 -0.9487288 0.15632983 0.12567264 -0.3796042 -0.019220246 -0.62441605 0.5745395 -0.8013074 -0.3515679 -0.31105423 -0.39814776 -0.72561073 0.148607 0.24234633 -0.9220666 0.13498698 -1.1380471 -1.081142 -0.47300288 0.26532754 0.3350498 0.39317656 -0.28470966 0.8467447 -0.36034867 0.6737283 -0.74163806 0.4819065 -0.1460856
20 -0.45623904 0.4158484 -0.030308517 -0.49319378 -0.075275555 -0.3394066 -0.49974337 -0.28925163 -0.3950282 -0.03644851 0.21132855 -0.75578785 0.021872798 -0.4103029 -0.33036926 -0.3328396 0.50165296 0.42878962 -0.34814286 0.11937051 0.3547463 -0.27469078 -0.3768777 -0.13494574 -0.03104437 0.36491704 0.08915909 0.054884575 0.20449696 -0.3397079 0.26371336 -0.14368226 0.0553527 -0.48552406 0.12773943 -0.7494509 -0.3370423 0.6532008 0.4562653 0.4598673 -0.4860158 0.18167697 -0.71721363 -0.2352651 0.1108017 -0.28951576 -0.7012141 -0.12729257 -0.12524252 -0.375204 0.0814353 0.21326976 -0.5126415 -0.5420482 0.13305846 0.134458 -0.03503745 -0.26778004 0.63038236 -0.45556962 0.6853359 -0.34217146 0.25388694 0.20793258
21 -0.6870931 0.261957 -0.0852954 -0.19814256 -0.14729486 -0.35610348 -0.59884214 -0.37325537 -0.73931724 -0.02766865 0.48842508 -0.7980331 0.33233243 -0.40824544 -0.22541907 -0.29259565 0.5926468 0.40405482 -0.2972659 0.3050348 0.31695005 -0.16439775 -0.48897514 -0.2814896 0.13769321 0.48718923 0.08212881 -0.14318326 0.113569744 -0.2552969 0.01335909 -0.11932009 -0.23107293 -0.5625914 -0.1392962 -0.6828531 -0.2155223 0.7654613 0.47050825 0.38757706 -0.55167633 0.21819447 -0.7075025 -0.299838 0.25821528 -0.36933014 -0.45520684 -0.22657369 -0.019850062 -0.2811325 0.058318496 0.2198864 -0.47836417 -0.42930812 0.028916005 -0.041932233 0.11766463 -0.62848055 0.6163379 -0.27831313 0.6704493 -0.6327271 0.2849285 -0.10793885
61 0.06347798 0.07274259 -0.2673481 -0.4202416 0.42032364 -0.9093826 -0.50366795 -0.2020496 -0.24407859 -0.20825483 0.5111926 -0.46897465 0.08472192 -0.29829967 0.24011478 0.21103948 0.11577791 0.34838468 -0.013723304 0.21858013 -0.14657824 0.03883142 -0.27204067 0.050516516 -0.4219925 -0.06759917 0.2993355 -0.14798371 0.1636273 -0.33602193 0.026139064 0.29005957 -0.49438217 -0.21018767 0.12921694 -0.18829104 0.15719505 0.59919876 0.7265179 -0.10039079 0.35691184 0.14490728 -0.49894285 -0.07744665 0.38732988 -0.5633079 -0.45876813 0.16092807 -0.1509877 -0.21244404 -0.42501256 -0.1248231 -0.67186695 -0.3012004 -0.13221994 -0.12231869 0.47954473 -0.24354513 0.49131745 -0.118283294 -0.014856596 -0.53862536 0.08233164 -0.19444668
22 -0.56059194 0.27502483 -0.0648484 -0.29957476 -0.12381444 -0.45057008 -0.50905883 -0.35912782 -0.6349799 -0.16472124 0.44723925 -0.6940061 0.17397663 -0.43117577 -0.16421492 -0.10138981 0.39827168 0.38071358 -0.26379582 0.2854593 0.3106846 -0.1925506 -0.29136592 -0.3221042 -0.056115918 0.2648894 0.18466915 0.013470188 0.08996831 -0.3421956 0.07932716 0.01501262 -0.17440833 -0.22362554 -0.13032958 -0.5630743 -0.40827912 0.70071423 0.39239964 0.7122039 -0.4101049 0.35267198 -0.85311615 -0.61110187 -0.022160811 -0.3966526 -0.47220054 0.054814912 0.16045691 -0.22111464 0.13941224 0.14597048 -0.41928947 -0.54052806 0.11095402 0.095770724 -0.13326825 -0.57330346 0.56258005 -0.3952516 0.64243066 -0.632424 0.2666497 -0.023247283
8 0.100750394 0.07272978 0.31813172 0.096834056 -0.5223673 0.04241341 -0.078644715 -0.10429374 -0.4495535 -0.78386277 0.20789918 -0.3753835 0.9349989 0.18931772 -0.88489705 -0.0673523 0.27588823 0.036106452 0.4065667 -0.5294909 0.2831805 -0.32314247 0.39792517 0.34544417 -0.4833721 -0.2759566 -0.3107982 0.5322433 0.31772402 -0.73893285 -0.15882482 -0.7880962 -0.046971876 0.34212783 0.36447784 -0.25415587 -0.104052536 0.6021664 0.9319106 -0.1909967 0.14372319 0.97368264 -0.34868658 0.41867945 0.16323417 0.0124978945 0.49803224 0.28225437 -0.51124287 -0.08367994 -0.46385595 0.14688425 -0.32246077 0.25333905 -0.0051842905 -0.08283431 -0.23616381 -0.21573366 0.35805488 -0.46073186 1.0622852 0.35371676 -0.3351284 -0.7808825
18 -0.7465991 -0.30109406 -0.3210496 -0.2822195 -0.08063273 -0.7080013 -0.9623818 -0.4768885 -0.12934387 -0.19092467 0.57938 -0.42944202 0.4260245 -0.49365592 -0.32202962 -0.20486413 0.4330011 0.089956 0.02113586 0.49817285 0.6112958 0.041312702 -0.42510608 -0.436661 0.046647787 0.4103721 0.008129153 -0.7332755 -0.45051625 -0.31182703 0.090079024 0.07133464 -0.5056737 -0.7585009 -0.49960873 -0.93414223 0.15141979 0.4105898 0.06638688 -0.037642546 -0.2026126 0.30879802 -0.38212597 -0.05407183 0.17114395 -0.07848285 -0.083189 -0.118112035 0.19266762 -0.10913339 0.031431973 -0.02870058 -0.55094194 -0.45262593 -0.107552305 0.28620848 0.3191386 -0.5093256 1.091404 -0.03818578 0.4444795 -0.6060562 0.43639678 -0.17296997
52 -0.15597898 0.069319285 -0.23547535 -0.15304582 -0.28683087 -0.5072347 -0.83386004 0.10737403 -0.2817311 -0.40606573 0.3582257 -0.4607054 -0.0073879883 -0.58884597 -0.2090539 0.21983607 -0.40073127 0.48485377 -0.32225642 0.29645297 0.21750218 0.13435793 -0.39131692 -0.40821472 0.07916274 -0.014745227 0.6003405 -0.047785327 0.007223666 -0.009943885 0.05568629 0.28898045 -0.31358868 0.24720074 -0.071688086 -0.25812212 -0.37745738 0.32464242 0.2499805 -0.1636731 -0.2662873 -0.34211594 -0.13025948 0.09265013 0.23373161 -0.07202075 -0.53771245 0.3245946 -0.36939806 0.04231583 0.016479332 0.2279106 -1.0437723 0.14477421 -0.26932043 0.1759505 0.21829131 -0.38818276 0.49193448 -0.4666761 0.42595854 -0.7626846 -0.23966834 0.07783181
23 -0.6141673 0.32965562 -0.15710922 -0.21809961 -0.13352266 -0.37532097 -0.48034132 -0.32377768 -0.6217493 -0.19043998 0.6193506 -0.7783858 0.14104761 -0.46868345 -0.17815648 -0.2440772 0.28795445 0.4555297 -0.27154353 0.22338071 0.24558224 -0.21146435 -0.30226636 -0.24328561 -0.0012158368 0.3070219 0.17151876 0.0856255 0.10194291 -0.23541735 -0.0025974445 -0.01904903 -0.18472715 -0.21280675 0.15081714 -0.5266078 -0.49393314 0.6117489 0.38914862 0.623556 -0.43250284 0.23180978 -0.76735467 -0.5941645 -0.018943215 -0.39893496 -0.5907224 0.10894822 0.26915807 -0.20633875 0.22819987 0.02854427 -0.34182447 -0.45542002 0.09373349 0.040316112 -0.10388662 -0.64854026 0.5442349 -0.3290063 0.70097613 -0.5262163 0.24428935 -0.057051066
9 -0.480453 -0.13361818 -0.47731784 -0.23917568 0.049846474 -0.12096968 -0.7936436 -0.06032574 0.0900729 0.002269391 0.22827815 0.077831745 0.31676936 -0.16259319 -0.4568733 -0.16747212 0.10817093 0.23890944 -0.3544136 0.7408152 0.5509098 -0.2346464 -0.65874773 -0.29877016 0.57020885 -0.18883267 0.4537857 -0.26174602 -0.08736122 -0.22633232 0.23500952 0.10877545 0.097858176 -0.87826276 0.16789983 -0.50175405 0.19802478 0.7275706 0.39613566 0.11407861 -0.15122923 -0.19321679 -0.17192502 -0.080863684 -0.11000321 -0.4069264 -0.66954476 -0.5631675 -0.098129764 -0.322044 -0.0021198108 0.43727955 -0.6357773 -0.43310153 -0.24197654 0.39646736 0.20860656 -0.19868329 0.91656744 -0.0952068 0.75720125 -0.91589737 -0.1439911 -0.36427817
24 -0.5899638 0.34434354 -0.21334729 -0.23724289 -0.06379407 -0.42505392 -0.32457548 -0.31100345 -0.50475407 -0.27946183 0.59168947 -0.76121825 0.058294978 -0.52493566 -0.26885748 -0.1455678 0.22446461 0.38432804 -0.32452124 0.20623739 0.24542694 -0.18059368 -0.15919794 -0.09848535 -0.075385965 0.22741072 0.10229538 0.09264084 0.07136203 -0.22363915 -0.09725383 -0.027137265 -0.20600261 -0.24316873 0.19450738 -0.6372728 -0.46344274 0.48277453 0.38527492 0.6573701 -0.43263087 0.35395557 -0.82429785 -0.4866054 0.011851286 -0.31379825 -0.5608792 0.08904233 0.2041114 -0.19697177 0.25271392 -0.08354129 -0.25027198 -0.3000591 0.269971 0.040450707 -0.16678235 -0.54769754 0.6504549 -0.35821483 0.7137224 -0.40741715 0.18369915 0.013060286
59 -0.51228774 0.19073135 -0.42955077 -0.38671467 0.0106092915 -0.18122806 -1.125408 -0.6318218 -0.018160196 -0.8438748 0.38146478 -0.7927562 0.30321822 -0.68221885 0.0867721 -0.60576034 0.18963222 0.7262753 -0.37763682 0.39864895 -0.06972361 -0.25565934 -0.8699895 -0.32420373 0.06545746 0.33509228 0.44297752 -0.35377964 0.14335997 -0.48053497 -0.33929166 -0.5132316 -0.4785453 -0.2821033 -0.22117613 -0.11455994 0.13714556 0.58858484 0.43231234 0.11364465 0.35526627 -0.58979625 -0.2426979 -0.37844694 -0.2867416 -0.18243632 -0.5622147 -0.11167928 -0.25904968 0.80840886 0.08892564 0.17016922 -0.70496213 -0.7714676 0.06781134 -0.02420677 0.1322346 -0.603165 1.0257403 -0.5584923 0.41248143 -0.47247106 0.13002028 -0.098854095
25 -0.6492261 0.44755802 -0.2819378 -0.39894408 0.08965907 -0.34183794 -0.44312605 -0.3000126 -0.43879074 -0.37132764 0.5778348 -0.7922383 -0.015808146 -0.44992092 -0.3606522 -0.27559513 0.1070208 0.47561345 -0.2996714 0.110631995 0.21723893 -0.29031137 -0.13755442 -0.14955227 -0.13145776 0.27310723 0.18082897 0.033689983 0.0017740276 -0.30724862 -0.15352006 0.049039543 -0.20383683 -0.45999932 0.29480073 -0.64722615 -0.682116 0.5659501 0.43930355 0.7439037 -0.3944012 0.3042631 -0.9057218 -0.46218586 -0.09423188 -0.286889 -0.56687987 0.18023968 0.010878396 -0.17376989 0.31097418 -0.19964774 -0.2647705 -0.33254507 0.31541264 0.06399102 -0.16659208 -0.49137783 0.64178365 -0.42259607 0.73885936 -0.4616971 0.29381716 -0.04050133
26 -0.72513527 0.47499216 -0.3956328 -0.26248875 0.19015726 -0.33410484 -0.28843012 -0.27624464 -0.39790967 -0.3961601 0.5438486 -0.6043246 0.026451413 -0.46716058 -0.45201433 -0.016701745 0.12628204 0.36963296 -0.286817 0.19705784 0.24213709 -0.15054472 -0.13484277 -0.084589876 0.012464 0.24621212 0.05851442 -0.0534749 0.12128281 -0.15945172 -0.2439628 0.030463738 -0.17296275 -0.38305712 0.29667333 -0.6269408 -0.59791374 0.43512866 0.359811 0.74208325 -0.37066084 0.42317185 -0.95792305 -0.43736443 -0.07139677 -0.30635262 -0.5735163 0.15259898 0.06410575 -0.106824115 0.31547725 -0.23422533 -0.20550296 -0.1992196 0.28455994 0.114387825 -0.17457245 -0.46989724 0.7004307 -0.4129392 0.69840235 -0.4654805 0.3293657 -0.086186305
27 -0.7162877 0.45650828 -0.2740904 -0.2991499 0.23170917 -0.34232464 -0.2890528 -0.20795432 -0.24839233 -0.4420914 0.42406976 -0.7211806 -0.052655626 -0.52845407 -0.5548708 -0.12974642 0.049957093 0.29535708 -0.3443449 0.04390993 0.3314613 -0.18145362 -0.19143632 -0.012809245 0.023262525 0.26946348 0.05746195 -0.014367238 0.1490703 -0.16003488 -0.24579993 -0.084382884 -0.24206218 -0.40478614 0.33479735 -0.62945706 -0.39992487 0.37814716 0.41872042 0.7326562 -0.21279357 0.36310953 -0.92814744 -0.27407262 -0.09085628 -0.2117189 -0.5584003 0.116013154 -0.12411543 -0.03373466 0.3401083 -0.24769585 -0.19186966 -0.16302474 0.39987227 0.07969313 -0.11305948 -0.2746677 0.7135399 -0.46246395 0.7125942 -0.3337248 0.3930287 -0.003029146
7 -0.34099904 0.29582852 -0.01050339 -0.6691026 -0.757392 -0.32860607 -0.073785506 -0.11880921 -0.6171189 0.23885675 -0.4175372 0.02799256 0.39615127 -0.02263901 0.08695022 -0.1458331 0.34761417 -0.28370544 -0.6956443 0.25789878 0.34292683 -0.3828782 0.6606968 0.25835574 -0.3195235 0.3871689 -0.4820828 0.33054173 -0.037282154 -0.84791094 0.33263937 0.15326427 -0.2142598 0.10287187 -0.35421714 0.04945908 -0.54160786 1.5703105 0.79048914 -0.25581685 -0.43562365 -0.06876489 -0.86086833 0.30913848 0.513817 -0.30127794 0.3445257 -0.10968083 -0.66225946 -0.06250279 0.2544906 -0.05188722 0.2876871 0.19263373 0.3866148 0.059770294 -0.044520516 -0.107299335 0.8638236 -0.18504117 0.71052545 0.41740346 -1.2130059 -0.5680725
28 -0.6976059 0.54410285 -0.22199053 -0.44710913 0.4366259 -0.40620127 -0.18721086 -0.049198262 -0.31035638 -0.4104431 0.3409775 -0.5014119 -0.11080038 -0.5589914 -0.58227813 -0.120363936 -0.0019320957 0.3067341 -0.2973571 0.13701025 0.28537476 -0.20255178 -0.34802043 0.116538204 0.014275763 0.1999249 -0.012127216 -0.0523167 0.14883557 -0.080277815 -0.23288219 -0.054076105 -0.23863491 -0.4012137 0.30873275 -0.65864325 -0.46432978 0.25194156 0.5215329 0.6372084 -0.31625178 0.4957585 -0.88308984 -0.30626136 -0.030709041 -0.27805036 -0.53383905 0.16688575 -0.098972656 -0.064004235 0.35490572 -0.34166986 -0.23810396 -0.04449168 0.4168981 0.056414913 -0.0042666085 -0.3542223 0.71958506 -0.51363164 0.61472434 -0.23579626 0.362292 0.07514323
4 -1.003423 0.23510586 -0.1188818 -0.80199164 0.018815013 -0.25215402 -0.74331486 -0.02871655 -0.6538136 -0.3868272 0.46621254 -0.17485559 0.6226234 -0.32222676 -0.40583694 0.042173553 -0.06564518 0.1367186 0.21284676 0.35462582 0.4570441 -0.14507219 -1.3396497 -0.14205702 0.46916115 -0.048608437 0.07476848 -0.49850017 0.34880546 0.057481058 -0.5607441 -0.26425382 -0.80144215 -0.10978333 -0.19632462 0.062194522 0.24652803 0.37574345 0.29655245 0.18536372 -0.3741458 0.8310371 -0.22693634 -0.47588348 -0.29327264 -0.3811868 -0.3476379 0.2740596 0.19274308 0.19566002 0.32220343 -0.768307 -1.1502639 -0.36148226 0.19537343 -0.11890704 0.16965272 -0.65996313 0.46680754 0.17487402 0.46637648 -1.0780528 0.24834289 0.2950693
64 -1.0140948 0.15244466 -0.50848323 -0.2598243 -0.024641924 -0.64176315 -0.48309812 0.12885518 0.008122214 -0.048959967 0.5223835 -0.5923605 0.82250434 0.48111516 0.009799376 -0.32737198 0.1619022 0.45806205 -0.27136856 0.4959817 0.33265382 -0.2926923 0.009723218 -0.9652981 0.4287651 -0.26680782 0.021080608 -0.47733203 -0.15476078 -0.063522235 -0.53769517 -0.37152505 -0.45436743 -0.000341782 -0.2952207 -0.35065392 -0.7338026 0.5055136 0.40137273 -0.15121467 -0.30870357 -0.20851842 -0.78443664 -0.08368015 -0.13063 -0.2960772 -0.5577505 0.34342143 -0.034284394 -0.8792011 -0.1920881 -0.41587737 -0.22244917 -0.75121677 -0.14878283 0.102699906 0.05174922 -0.52879405 0.6283579 -0.23252599 0.5870389 -0.54298574 0.44985446 0.13675456
62 -1.0874736 0.16854163 -0.40063235 -0.2787013 -0.040623173 -0.78970724 -0.4537557 0.19891165 -0.09023424 -0.07111916 0.4702698 -0.5004832 0.7363025 0.5022459 0.069789976 -0.31913188 0.18435484 0.34539804 -0.23217717 0.66148186 0.32742798 -0.29768074 0.06147002 -0.84929925 0.44469827 -0.24081485 0.0008916945 -0.43485853 -0.0414607 -0.016274463 -0.50724614 -0.3223283 -0.42261827 0.045053706 -0.3512464 -0.40157557 -0.653251 0.49073765 0.31205323 -0.17138124 -0.41754368 -0.18064123 -0.74061084 -0.13207577 -0.16049214 -0.31365913 -0.5940295 0.22699778 -0.03924467 -0.86574423 -0.2029823 -0.39408323 -0.3100587 -0.6987882 -0.1059464 0.026582083 0.16689976 -0.62232816 0.58837056 -0.22188263 0.47562793 -0.5279981 0.42947546 0.18436615
19 -0.727008 0.3068686 -0.07610491 -0.47341114 -0.39696595 -0.051828187 -0.10015085 -0.4153075 -1.0587484 -0.4871084 0.58655715 -0.88838154 0.5132965 -0.06123775 -0.115540266 -0.16286176 -0.009853981 0.5140548 -0.01769247 -0.09518308 0.041737143 0.23762251 -0.3905407 -0.09077669 -0.38252023 0.35428154 -0.27071875 -0.14484626 0.574803 -0.7516577 -0.40895644 -0.08264321 -0.6750698 -0.46673423 -0.077504486 -0.8618254 -0.91519076 0.7697427 0.22614785 0.09554074 -0.7420531 -0.15854207 -0.6740914 0.041027155 -0.226522 -0.44837028 -0.12746426 -0.01502443 0.07874101 -0.55666554 0.23923066 -0.6147464 -0.30120057 -0.9305988 0.5480987 -0.36784878 0.16582724 -0.16930434 0.7445942 -0.472602 0.60499024 -0.4914937 0.74380696 0.05645263
34 -0.63730776 -0.012946911 -0.69486815 0.13639037 0.4819592 -0.13325003 -0.34715286 -0.1961033 -0.129273 -0.30657014 0.83660936 -0.057230867 0.87723327 0.08705273 -0.5638252 0.03257085 -0.44041613 0.3578549 0.42770422 0.2902058 0.5186364 0.2382532 -0.5994497 -0.42101437 -0.07968635 -0.05453415 0.3183328 -0.6276347 0.18423711 -0.34982106 -0.5286573 -0.36655235 -0.9671231 -0.1964611 0.057145078 -0.122151665 -0.5656551 -0.08354932 0.16643807 -0.037693612 0.15222616 0.61013323 -0.1072789 -0.65655553 -0.007584537 -0.4036274 -0.11813664 0.6440404 0.09926874 0.023772528 0.25697064 -0.6263899 -0.549282 -0.63078964 -0.23474996 -0.17032617 -0.107461624 -0.6531003 0.87525135 -0.47523716 0.4055836 -1.1023173 0.103961624 0.19940469
14 -0.24929887 0.28715977 -0.6073446 -0.9910655 -0.21928148 0.19733244 -1.1543754 -0.11695514 -1.145513 -1.0808865 1.2952714 -0.6447103 0.52182746 -1.0815922 0.12604368 -0.05486693 -0.5808352 -0.123618126 0.1883318 -0.29752782 0.20884511 0.40763244 -0.9992373 -0.4875747 -0.599838 0.12718594 -0.4483039 -0.6731859 -0.21386814 -0.20566963 -0.103084214 -0.644192 -1.2828063 -0.9762759 -0.32585174 -1.1139696 -1.0941546 -0.2878584 0.3510839 0.44758335 0.10662751 0.04655117 -0.49891976 -0.03867446 -0.18072121 -0.32352456 -0.2849348 -0.57081616 -0.2606592 -1.0150115 0.81645155 -0.1089688 -0.3822311 -0.8397598 0.1504842 0.014313916 -0.23763081 -0.48157197 0.39341372 -0.28073728 1.4116315 -0.7260065 1.0648718 0.22352049
13 0.5905319 -0.45641893 -0.8637214 -0.7608379 0.010296134 -0.18181391 -1.4545711 -0.442369 -0.64472985 -0.10205947 0.6650758 -0.0706538 0.4838246 -0.85912126 0.4755964 -0.40838802 -0.60932857 -0.28918383 0.46216536 0.17365587 0.48741233 1.1125557 -1.1519636 -0.2969822 -0.8416392 0.20138353 -0.28434947 -0.062117375 0.06282049 -0.38082543 -0.18511778 -0.66124636 -0.91380036 -0.58838356 0.3636878 -0.64082366 -1.2388668 -0.8923884 0.17535655 0.15617591 0.41967058 -0.2394141 -0.21152213 -0.17064372 -0.33129478 0.3128415 -0.009650756 -0.30567592 -0.0012710419 -0.71586156 0.21757343 -0.10682992 -0.1631817 -0.16074683 -0.054648362 0.12683296 -0.28552508 -0.5272958 0.695611 0.18651782 0.9289072 -0.6411359 0.7160835 0.61673397
66 -0.8501542 0.27770138 -1.2381674 -0.5011878 0.82310313 0.16109778 -0.65182704 -0.2724337 -1.260809 -0.8187534 -1.0852474 -1.133507 -0.44450045 -0.715025 0.09404309 -0.9553616 -0.2897647 -1.6475058 0.5358861 0.17539103 0.39724648 1.5356926 -0.61033344 0.6954499 -0.10523056 0.68612915 -1.0537399 -0.23436603 0.32511607 -0.9246695 0.632433 -0.5442062 -0.7001708 -0.9939707 0.2524865 -0.72380286 0.8448632 -0.9752178 0.9832845 -0.7068397 0.33619028 0.3458336 -0.15350328 0.5497994 0.7701026 -0.5973477 -2.031682 -0.22521515 -0.9149718 -0.45672196 -0.16406924 0.4434148 -0.23043686 0.05236792 -0.13146056 -0.8019361 0.29386097 -0.62321097 0.80526924 0.29070893 0.48513946 -1.2136786 0.34377488 0.9486073
96 0.49560016 0.31558567 -0.42428994 -1.0396475 0.41493374 0.087962046 -1.6298959 -0.52749485 -1.2729839 -0.6357693 -0.39436865 0.1949697 0.2258509 -0.5234937 0.4222901 -0.49535143 -0.21559784 -0.909358 0.63595957 0.46276549 0.7872358 1.4874855 -1.2725772 -0.46091035 -0.51622677 0.5657946 -0.8018713 0.017288892 0.98652023 -0.19160974 -0.45139608 -0.18050016 -0.53398764 -0.6762837 1.0041424 -0.24706301 -0.37801257 -0.4297457 0.59379274 -0.3701789 0.022444818 -0.37383172 0.13652232 -0.09432779 -0.36104402 -0.32479924 -0.39547524 -0.29297262 -0.7657173 -0.8031843 0.5407745 0.1441068 -0.05335362 0.05979328 -0.38623363 0.46070257 -0.44501862 -0.12484734 0.35808522 0.1434073 1.3249792 -0.9897142 0.6395218 1.2286367
6 -0.15008293 0.200902 -0.3740531 -0.6757482 -0.21038301 0.61119974 -0.58418596 0.35665566 -0.7540307 -0.46397883 0.59486413 0.035244558 0.6593993 -0.55068994 -0.48105636 0.2885782 -0.16705073 0.74378246 0.21770449 0.24068893 0.4755618 0.3022165 -0.6007763 -0.16288859 0.1283363 0.30248657 -0.11370882 -0.41438642 0.57346946 0.012763442 -0.14834222 -0.40357596 -0.86282206 -0.842547 -0.24550553 -0.33496514 -0.16325855 0.34797224 0.07120645 0.26346684 0.16515426 0.23804036 0.06485721 -0.3869712 -0.22197245 -0.19780435 -0.31965476 -0.07006283 -0.19177854 -0.85139954 0.74519545 -0.05481405 -0.72927946 -0.7290687 0.19656113 0.018886883 0.3738183 -0.5296723 0.7593147 -0.011431844 0.44347134 -0.85218656 0.6565027 0.0014906254
94 0.7507861 0.1822111 -0.046173476 -1.1646912 0.4864472 0.10838944 -1.9735996 -0.73909295 -1.7134802 -0.022047855 -0.8655421 0.2977342 0.11840527 0.120322965 0.9650849 -0.61887944 -0.21665193 -1.1081907 1.0319849 0.5829639 1.4174836 1.5510907 -1.3571188 -0.49037418 -0.9455828 0.8851138 -1.0545286 0.51545525 0.9327963 -0.7155384 -0.33694497 0.08300148 -0.18357654 -0.063395336 1.0250237 -0.19757934 -0.47671536 -1.0988513 0.79115087 -0.40874714 0.82934517 -0.50876814 -0.21290135 0.13364813 0.11354263 -0.1083634 -0.20783027 -0.7423877 -0.49684536 -0.3818624 -0.051685352 -0.15611051 0.54623216 0.16113394 -0.75295496 0.18094575 -1.0053768 -0.34516492 0.050082684 0.25083008 1.6083044 -0.50069535 -0.21289475 1.2390335
35 0.7223626 0.014087243 -1.0502414 -1.1516497 0.18404597 0.9829228 -1.274343 -0.6141495 -1.409214 -0.46050876 -0.2903592 0.117420174 -0.6751957 -1.1964813 0.105364546 -0.22921957 -0.7606221 -0.9327911 0.89730704 -0.44052687 1.0796579 0.75961876 -1.4635065 0.6422852 -1.5407994 0.113152586 -0.27108544 0.066177 0.71121424 -0.7763607 -0.30355838 0.5563873 -0.6461234 -1.3787309 1.2594459 -0.5067713 -0.12268371 -0.7093975 0.71966374 -0.14366138 0.58686143 0.052116297 0.28941312 -0.30958754 -0.38154608 -0.08990403 0.01933396 -0.42556322 0.088624775 -0.21874815 0.5260871 -0.14169554 -0.03337044 0.33941153 -0.51009464 0.40239653 0.025545886 -0.30266786 0.8880146 0.4991275 1.2322406 -1.4142938 0.4286137 0.7722341
33 1.4367057 -0.2505081 -0.19903043 -1.3428819 0.64530176 0.23831058 -1.8165239 -0.64872617 -2.094622 -0.52506584 -0.44639128 0.63568455 0.42706147 -1.1902115 0.44093284 -0.88564104 -0.7130315 -1.7812877 0.84527946 0.13663699 1.3069317 1.3304319 -1.672723 -0.17512366 -2.2976236 0.7632168 -1.3214682 0.6308005 0.49691856 -0.75043565 -0.44093874 -0.5159522 -1.1709244 -0.6161634 1.4082117 -0.3946272 -1.1132709 -1.3372898 0.6108631 -0.667761 0.69778734 -0.26708412 0.52296275 0.37877497 -0.18614762 0.039024867 0.48335364 -1.0916163 -0.499439 -0.57984585 0.31912225 -0.3934298 -0.020754443 0.43045613 -0.4245373 0.17796129 -0.73586285 0.010218721 -0.24892455 0.2181027 1.2542375 -0.44285092 0.44661254 1.9543233
97 0.97673815 -0.2876175 -0.6749153 -0.889605 0.29274723 0.41402838 -1.3240736 -0.6035909 -1.3441972 -0.72427803 0.32265908 0.31643236 0.3690667 -1.1874521 0.22011134 -0.04686682 -0.86419976 -0.8415749 0.6605667 -0.11563905 0.9981652 0.7997267 -1.1895934 0.05259566 -1.825776 0.4223421 -0.7559724 0.0017617848 0.29017928 -0.5190997 -0.34056064 -0.45426533 -1.1375796 -0.89098203 0.828949 -0.6005637 -1.0622681 -0.87712246 0.42372742 0.055811346 0.6143841 -0.10770108 0.5763032 0.20566936 -0.12202622 -0.28299457 0.4495312 -0.78341424 -0.42241797 -0.7251228 0.8868164 -0.6961492 -0.05175937 0.030621417 0.03295408 0.32337984 -0.39696792 -0.1360324 0.20016019 -0.049349755 1.1869901 -0.4386327 0.45063323 1.1582607
31 1.619516 -0.6109247 -0.40295509 -1.516094 0.7395703 0.22471718 -1.9666924 -0.8230974 -2.4164312 -0.34658253 -0.21684651 0.9346728 0.17773525 -1.1171851 0.4556805 -0.87108105 -0.60625625 -1.684804 1.1058784 0.17687757 1.332846 1.402315 -1.6514548 -0.12907106 -2.7501707 0.55043256 -1.3019375 0.8578166 0.4665133 -0.84136933 -0.3192493 -0.5553264 -1.1074759 -0.82374704 1.4440742 -0.48886573 -1.411408 -1.7407143 0.7624081 -0.5004949 0.9381827 -0.35691968 0.47815588 0.5064921 -0.21731229 0.097173974 0.6559891 -1.2732023 -0.4425072 -0.7061198 0.2925352 -0.57792896 0.2263735 0.313081 -0.53299934 0.30213258 -0.9626952 0.022275014 -0.17795017 0.50803685 1.4164215 -0.3004613 0.31543115 2.0223782
63 1.9466214 -0.5389646 -0.7208915 -1.5019525 0.81808347 0.09452724 -2.789931 -1.2209375 -2.2775126 -0.087195605 -0.2244755 1.3354301 0.05078463 -1.580498 0.66869146 -0.9598074 -0.63945436 -2.2466629 0.9808536 0.5892597 1.426719 1.5561182 -2.2443933 -0.1520057 -2.925848 0.70057184 -1.5141253 0.7822986 0.29392165 -0.7671933 -0.39380378 -0.49421194 -1.2711582 -0.65249354 1.744053 -0.2518646 -1.1857791 -1.9339638 0.7036554 -0.58719695 1.0349908 -0.909657 0.7051883 -0.074736305 -0.17906776 0.39776793 0.84591264 -1.3703023 -0.34204966 -0.83688635 0.56185335 -0.020451518 0.1898757 0.74203026 -0.6567051 0.27788547 -0.9140354 0.041083008 -0.12671128 0.24338184 1.867388 -0.4632668 0.38550487 2.357762
67 1.6219599 -0.4306109 -0.65162647 -0.5949088 0.49369252 -0.22118536 -1.5762768 -0.18887532 -1.4248283 -0.3186822 -0.054951765 1.0984871 0.2517922 -0.7826317 0.73504674 -0.3301802 -0.5064325 -1.4866668 0.78768265 0.36605567 0.9924752 0.58798426 -1.3182521 -0.14585483 -1.6176314 0.2729315 -0.95934385 0.8780037 -0.09272832 -0.23035668 -0.015665712 -0.19260393 -1.1956319 -0.61750007 1.277836 -0.32061285 -0.9681626 -0.7198913 0.4466114 -0.18314768 0.44282848 -0.5579313 0.14962988 -0.023195798 -0.5205981 0.12944627 0.34690088 -0.9503858 -0.24552159 0.06412338 0.40696216 -0.5151492 -0.28500378 0.3746161 -0.51776165 0.036720034 -0.4378693 -0.4041134 -0.29782808 -0.16934629 0.98149824 -0.44208965 0.26541054 1.2484038
65 1.990057 -0.6053339 -0.76704574 -1.3342929 0.50201416 0.091943964 -2.5145347 -1.1131133 -2.0319874 -0.05749106 -0.3424574 1.1513468 -0.1132314 -1.5602331 0.6378313 -0.8883607 -0.66818184 -2.1760314 1.1466265 0.5560442 1.1316819 1.6308227 -1.932858 -0.31083116 -2.5895476 0.45625743 -1.4930582 0.7012371 0.14043434 -0.8417318 -0.20430236 -0.5481446 -0.9196805 -0.69468725 1.6904064 -0.31526777 -1.2964283 -1.8197341 0.89510536 -0.5112022 1.1121001 -0.46829554 0.5738455 -0.09218594 -0.48442456 0.409762 0.70427066 -1.3225775 -0.28894255 -0.64540493 0.61678594 -0.016200656 0.1864627 0.82415223 -0.64259166 0.41640756 -0.9694695 -0.10639113 -0.29684287 0.3664736 1.7984569 -0.67315054 0.55586106 2.1079159
98 0.8397508 -0.08665343 -0.85228914 -1.3362721 0.35752273 0.73480815 -1.1218121 -0.52935994 -0.7761365 0.50459176 0.042420022 0.86726993 0.0075690052 -0.57805353 0.3974861 -0.03405916 0.31365383 -0.14208916 0.83610994 0.07035072 1.4688647 0.81421876 -1.1965522 0.4720097 -0.85944015 0.056121834 -0.9588893 0.22426116 0.7518712 -0.079670504 -0.30919117 -0.04388336 -0.29247895 -0.7727802 0.6864924 0.627375 0.16079195 -0.80166173 0.53334606 -0.26231098 -0.03166531 -0.12536696 0.2173963 -0.3817884 -0.4425354 0.49594262 0.1511951 -0.6030287 0.22390239 0.66326386 0.3850437 0.3112041 -0.6380384 0.52045023 -0.30133897 0.627038 -0.965987 -0.9456989 0.19561006 1.1788694 0.4249537 -0.88063115 -0.48684055 1.2871624
